digraph Tree {
node [shape=box, style="filled", color="black"] ;
0 [label="X[0] <= 0.5\ngini = 0.272\nsamples = 7595\nvalue = [1233, 6362]", fillcolor="#5fb0ea"] ;
1 [label="X[2] <= 5.5\ngini = 0.289\nsamples = 3999\nvalue = [700, 3299]", fillcolor="#63b2eb"] ;
0 -> 1 [labeldistance=2.5, labelangle=45, headlabel="True"] ;
2 [label="X[3] <= 2.5\ngini = 0.284\nsamples = 3397\nvalue = [582, 2815]", fillcolor="#62b1ea"] ;
1 -> 2 ;
3 [label="gini = 0.255\nsamples = 634\nvalue = [95, 539]", fillcolor="#5caeea"] ;
2 -> 3 ;
4 [label="gini = 0.29\nsamples = 2763\nvalue = [487, 2276]", fillcolor="#63b2eb"] ;
2 -> 4 ;
5 [label="X[1] <= 2.5\ngini = 0.315\nsamples = 602\nvalue = [118, 484]", fillcolor="#69b5eb"] ;
1 -> 5 ;
6 [label="gini = 0.324\nsamples = 556\nvalue = [113, 443]", fillcolor="#6cb6ec"] ;
5 -> 6 ;
7 [label="gini = 0.194\nsamples = 46\nvalue = [5, 41]", fillcolor="#51a9e8"] ;
5 -> 7 ;
8 [label="X[1] <= 1.5\ngini = 0.253\nsamples = 3596\nvalue = [533, 3063]", fillcolor="#5baeea"] ;
0 -> 8 [labeldistance=2.5, labelangle=-45, headlabel="False"] ;
9 [label="X[3] <= 4.5\ngini = 0.233\nsamples = 1935\nvalue = [261, 1674]", fillcolor="#58ace9"] ;
8 -> 9 ;
10 [label="gini = 0.235\nsamples = 1918\nvalue = [261, 1657]", fillcolor="#58ace9"] ;
9 -> 10 ;
11 [label="gini = 0.0\nsamples = 17\nvalue = [0, 17]", fillcolor="#399de5"] ;
9 -> 11 ;
12 [label="X[3] <= 0.5\ngini = 0.274\nsamples = 1661\nvalue = [272, 1389]", fillcolor="#60b0ea"] ;
8 -> 12 ;
13 [label="gini = 0.336\nsamples = 239\nvalue = [51, 188]", fillcolor="#6fb8ec"] ;
12 -> 13 ;
14 [label="gini = 0.263\nsamples = 1422\nvalue = [221, 1201]", fillcolor="#5dafea"] ;
12 -> 14 ;
}