digraph Tree {
node [shape=box, style="filled", color="black"] ;
0 [label="X[14] <= 54.5\ngini = 0.27\nsamples = 7595\nvalue = [1220, 6375]", fillcolor="#5fb0ea"] ;
1 [label="X[12] <= 634.5\ngini = 0.472\nsamples = 2594\nvalue = [992, 1602]", fillcolor="#b4daf5"] ;
0 -> 1 [labeldistance=2.5, labelangle=45, headlabel="True"] ;
2 [label="X[8] <= 3.5\ngini = 0.4\nsamples = 887\nvalue = [642, 245]", fillcolor="#efb185"] ;
1 -> 2 ;
3 [label="gini = 0.237\nsamples = 452\nvalue = [390, 62]", fillcolor="#e99558"] ;
2 -> 3 ;
4 [label="gini = 0.487\nsamples = 435\nvalue = [252, 183]", fillcolor="#f8dcc9"] ;
2 -> 4 ;
5 [label="X[8] <= 2.5\ngini = 0.326\nsamples = 1707\nvalue = [350, 1357]", fillcolor="#6cb6ec"] ;
1 -> 5 ;
6 [label="gini = 0.32\nsamples = 155\nvalue = [124, 31]", fillcolor="#eca06a"] ;
5 -> 6 ;
7 [label="gini = 0.249\nsamples = 1552\nvalue = [226, 1326]", fillcolor="#5baee9"] ;
5 -> 7 ;
8 [label="X[12] <= 574.0\ngini = 0.087\nsamples = 5001\nvalue = [228, 4773]", fillcolor="#42a2e6"] ;
0 -> 8 [labeldistance=2.5, labelangle=-45, headlabel="False"] ;
9 [label="X[13] <= 0.861\ngini = 0.224\nsamples = 1168\nvalue = [150, 1018]", fillcolor="#56abe9"] ;
8 -> 9 ;
10 [label="gini = 0.15\nsamples = 880\nvalue = [72, 808]", fillcolor="#4ba6e7"] ;
9 -> 10 ;
11 [label="gini = 0.395\nsamples = 288\nvalue = [78, 210]", fillcolor="#83c1ef"] ;
9 -> 11 ;
12 [label="X[12] <= 2515.5\ngini = 0.04\nsamples = 3833\nvalue = [78, 3755]", fillcolor="#3d9fe6"] ;
8 -> 12 ;
13 [label="gini = 0.027\nsamples = 3634\nvalue = [49, 3585]", fillcolor="#3c9ee5"] ;
12 -> 13 ;
14 [label="gini = 0.249\nsamples = 199\nvalue = [29, 170]", fillcolor="#5baee9"] ;
12 -> 14 ;
}