digraph Tree {
node [shape=box, style="filled", color="black"] ;
0 [label="X[16] <= 54.5\ngini = 0.272\nsamples = 7595\nvalue = [1233, 6362]", fillcolor="#5fb0ea"] ;
1 [label="X[12] <= 628.5\ngini = 0.472\nsamples = 2606\nvalue = [995, 1611]", fillcolor="#b3daf5"] ;
0 -> 1 [labeldistance=2.5, labelangle=45, headlabel="True"] ;
2 [label="X[17] <= 0.662\ngini = 0.379\nsamples = 858\nvalue = [640, 218]", fillcolor="#eeac7c"] ;
1 -> 2 ;
3 [label="gini = 0.272\nsamples = 648\nvalue = [543, 105]", fillcolor="#ea995f"] ;
2 -> 3 ;
4 [label="gini = 0.497\nsamples = 210\nvalue = [97, 113]", fillcolor="#e3f1fb"] ;
2 -> 4 ;
5 [label="X[8] <= 2.5\ngini = 0.324\nsamples = 1748\nvalue = [355, 1393]", fillcolor="#6bb6ec"] ;
1 -> 5 ;
6 [label="gini = 0.366\nsamples = 162\nvalue = [123, 39]", fillcolor="#eda978"] ;
5 -> 6 ;
7 [label="gini = 0.25\nsamples = 1586\nvalue = [232, 1354]", fillcolor="#5baee9"] ;
5 -> 7 ;
8 [label="X[15] <= 5271.5\ngini = 0.091\nsamples = 4989\nvalue = [238, 4751]", fillcolor="#43a2e6"] ;
0 -> 8 [labeldistance=2.5, labelangle=-45, headlabel="False"] ;
9 [label="X[16] <= 57.5\ngini = 0.036\nsamples = 3827\nvalue = [70, 3757]", fillcolor="#3d9fe5"] ;
8 -> 9 ;
10 [label="gini = 0.303\nsamples = 199\nvalue = [37, 162]", fillcolor="#66b3eb"] ;
9 -> 10 ;
11 [label="gini = 0.018\nsamples = 3628\nvalue = [33, 3595]", fillcolor="#3b9ee5"] ;
9 -> 11 ;
12 [label="X[16] <= 78.5\ngini = 0.247\nsamples = 1162\nvalue = [168, 994]", fillcolor="#5aaee9"] ;
8 -> 12 ;
13 [label="gini = 0.417\nsamples = 196\nvalue = [138, 58]", fillcolor="#f0b68c"] ;
12 -> 13 ;
14 [label="gini = 0.06\nsamples = 966\nvalue = [30, 936]", fillcolor="#3fa0e6"] ;
12 -> 14 ;
}